digraph Tree {
node [shape=box] ;
0 [label="X[5] <= 6.941\nmse = 87.897\nsamples = 354\nvalue = 23.016"] ;
1 [label="X[12] <= 14.4\nmse = 41.295\nsamples = 292\nvalue = 20.084"] ;
0 -> 1 [labeldistance=2.5, labelangle=45, headlabel="True"] ;
2 [label="X[7] <= 1.385\nmse = 26.114\nsamples = 178\nvalue = 23.47"] ;
1 -> 2 ;
3 [label="X[0] <= 10.109\nmse = 91.577\nsamples = 4\nvalue = 44.475"] ;
2 -> 3 ;
4 [label="mse = 0.0\nsamples = 3\nvalue = 50.0"] ;
3 -> 4 ;
5 [label="mse = -0.0\nsamples = 1\nvalue = 27.9"] ;
3 -> 5 ;
6 [label="X[5] <= 6.543\nmse = 14.233\nsamples = 174\nvalue = 22.987"] ;
2 -> 6 ;
7 [label="X[12] <= 7.76\nmse = 7.174\nsamples = 133\nvalue = 21.639"] ;
6 -> 7 ;
8 [label="X[0] <= 0.032\nmse = 2.279\nsamples = 25\nvalue = 23.776"] ;
7 -> 8 ;
9 [label="mse = 0.0\nsamples = 1\nvalue = 28.7"] ;
8 -> 9 ;
10 [label="mse = 1.322\nsamples = 24\nvalue = 23.571"] ;
8 -> 10 ;
11 [label="X[10] <= 20.55\nmse = 7.006\nsamples = 108\nvalue = 21.144"] ;
7 -> 11 ;
12 [label="mse = 6.506\nsamples = 95\nvalue = 21.445"] ;
11 -> 12 ;
13 [label="mse = 5.159\nsamples = 13\nvalue = 18.946"] ;
11 -> 13 ;
14 [label="X[12] <= 5.785\nmse = 12.125\nsamples = 41\nvalue = 27.359"] ;
6 -> 14 ;
15 [label="X[10] <= 17.85\nmse = 8.642\nsamples = 14\nvalue = 30.007"] ;
14 -> 15 ;
16 [label="mse = 2.728\nsamples = 10\nvalue = 31.48"] ;
15 -> 16 ;
17 [label="mse = 4.447\nsamples = 4\nvalue = 26.325"] ;
15 -> 17 ;
18 [label="X[7] <= 3.968\nmse = 8.407\nsamples = 27\nvalue = 25.985"] ;
14 -> 18 ;
19 [label="mse = 9.042\nsamples = 12\nvalue = 27.6"] ;
18 -> 19 ;
20 [label="mse = 4.145\nsamples = 15\nvalue = 24.693"] ;
18 -> 20 ;
21 [label="X[7] <= 2.079\nmse = 19.151\nsamples = 114\nvalue = 14.797"] ;
1 -> 21 ;
22 [label="X[0] <= 6.828\nmse = 12.162\nsamples = 62\nvalue = 12.266"] ;
21 -> 22 ;
23 [label="X[5] <= 5.428\nmse = 6.82\nsamples = 22\nvalue = 15.041"] ;
22 -> 23 ;
24 [label="X[0] <= 0.918\nmse = 4.836\nsamples = 6\nvalue = 12.567"] ;
23 -> 24 ;
25 [label="mse = 0.0\nsamples = 1\nvalue = 8.1"] ;
24 -> 25 ;
26 [label="mse = 1.014\nsamples = 5\nvalue = 13.46"] ;
24 -> 26 ;
27 [label="X[6] <= 88.7\nmse = 4.407\nsamples = 16\nvalue = 15.969"] ;
23 -> 27 ;
28 [label="mse = 0.0\nsamples = 1\nvalue = 21.4"] ;
27 -> 28 ;
29 [label="mse = 2.603\nsamples = 15\nvalue = 15.607"] ;
27 -> 29 ;
30 [label="X[4] <= 0.675\nmse = 8.536\nsamples = 40\nvalue = 10.74"] ;
22 -> 30 ;
31 [label="X[0] <= 26.152\nmse = 3.082\nsamples = 11\nvalue = 12.973"] ;
30 -> 31 ;
32 [label="mse = 2.172\nsamples = 10\nvalue = 12.64"] ;
31 -> 32 ;
33 [label="mse = 0.0\nsamples = 1\nvalue = 16.3"] ;
31 -> 33 ;
34 [label="X[12] <= 19.31\nmse = 7.997\nsamples = 29\nvalue = 9.893"] ;
30 -> 34 ;
35 [label="mse = 4.108\nsamples = 5\nvalue = 13.9"] ;
34 -> 35 ;
36 [label="mse = 4.765\nsamples = 24\nvalue = 9.058"] ;
34 -> 36 ;
37 [label="X[11] <= 322.505\nmse = 10.738\nsamples = 52\nvalue = 17.815"] ;
21 -> 37 ;
38 [label="X[12] <= 17.375\nmse = 2.874\nsamples = 14\nvalue = 14.514"] ;
37 -> 38 ;
39 [label="X[0] <= 5.764\nmse = 3.319\nsamples = 6\nvalue = 15.867"] ;
38 -> 39 ;
40 [label="mse = 2.65\nsamples = 4\nvalue = 16.7"] ;
39 -> 40 ;
41 [label="mse = 0.49\nsamples = 2\nvalue = 14.2"] ;
39 -> 41 ;
42 [label="X[11] <= 95.59\nmse = 0.14\nsamples = 8\nvalue = 13.5"] ;
38 -> 42 ;
43 [label="mse = 0.109\nsamples = 3\nvalue = 13.867"] ;
42 -> 43 ;
44 [label="mse = 0.03\nsamples = 5\nvalue = 13.28"] ;
42 -> 44 ;
45 [label="X[6] <= 84.95\nmse = 8.141\nsamples = 38\nvalue = 19.032"] ;
37 -> 45 ;
46 [label="X[11] <= 394.53\nmse = 3.146\nsamples = 16\nvalue = 20.7"] ;
45 -> 46 ;
47 [label="mse = 2.728\nsamples = 9\nvalue = 21.689"] ;
46 -> 47 ;
48 [label="mse = 0.811\nsamples = 7\nvalue = 19.429"] ;
46 -> 48 ;
49 [label="X[0] <= 0.171\nmse = 8.277\nsamples = 22\nvalue = 17.818"] ;
45 -> 49 ;
50 [label="mse = 9.354\nsamples = 5\nvalue = 21.08"] ;
49 -> 50 ;
51 [label="mse = 3.911\nsamples = 17\nvalue = 16.859"] ;
49 -> 51 ;
52 [label="X[5] <= 7.437\nmse = 76.221\nsamples = 62\nvalue = 36.824"] ;
0 -> 52 [labeldistance=2.5, labelangle=-45, headlabel="False"] ;
53 [label="X[12] <= 15.765\nmse = 39.454\nsamples = 39\nvalue = 32.241"] ;
52 -> 53 ;
54 [label="X[7] <= 1.886\nmse = 22.096\nsamples = 37\nvalue = 33.222"] ;
53 -> 54 ;
55 [label="X[11] <= 377.74\nmse = 18.923\nsamples = 2\nvalue = 45.65"] ;
54 -> 55 ;
56 [label="mse = 0.0\nsamples = 1\nvalue = 41.3"] ;
55 -> 56 ;
57 [label="mse = 0.0\nsamples = 1\nvalue = 50.0"] ;
55 -> 57 ;
58 [label="X[10] <= 19.7\nmse = 12.947\nsamples = 35\nvalue = 32.511"] ;
54 -> 58 ;
59 [label="X[4] <= 0.488\nmse = 9.536\nsamples = 33\nvalue = 33.0"] ;
58 -> 59 ;
60 [label="mse = 5.042\nsamples = 23\nvalue = 33.861"] ;
59 -> 60 ;
61 [label="mse = 14.246\nsamples = 10\nvalue = 31.02"] ;
59 -> 61 ;
62 [label="X[8] <= 12.5\nmse = 0.303\nsamples = 2\nvalue = 24.45"] ;
58 -> 62 ;
63 [label="mse = 0.0\nsamples = 1\nvalue = 23.9"] ;
62 -> 63 ;
64 [label="mse = 0.0\nsamples = 1\nvalue = 25.0"] ;
62 -> 64 ;
65 [label="X[5] <= 7.181\nmse = 13.69\nsamples = 2\nvalue = 14.1"] ;
53 -> 65 ;
66 [label="mse = 0.0\nsamples = 1\nvalue = 10.4"] ;
65 -> 66 ;
67 [label="mse = -0.0\nsamples = 1\nvalue = 17.8"] ;
65 -> 67 ;
68 [label="X[10] <= 19.65\nmse = 42.551\nsamples = 23\nvalue = 44.596"] ;
52 -> 68 ;
69 [label="X[7] <= 3.207\nmse = 20.007\nsamples = 22\nvalue = 45.627"] ;
68 -> 69 ;
70 [label="X[0] <= 0.556\nmse = 5.84\nsamples = 10\nvalue = 48.67"] ;
69 -> 70 ;
71 [label="X[0] <= 0.527\nmse = 7.967\nsamples = 4\nvalue = 46.675"] ;
70 -> 71 ;
72 [label="mse = 4.942\nsamples = 3\nvalue = 47.867"] ;
71 -> 72 ;
73 [label="mse = -0.0\nsamples = 1\nvalue = 43.1"] ;
71 -> 73 ;
74 [label="mse = -0.0\nsamples = 6\nvalue = 50.0"] ;
70 -> 74 ;
75 [label="X[12] <= 4.08\nmse = 17.669\nsamples = 12\nvalue = 43.092"] ;
69 -> 75 ;
76 [label="X[0] <= 0.35\nmse = 11.538\nsamples = 10\nvalue = 44.32"] ;
75 -> 76 ;
77 [label="mse = 6.313\nsamples = 7\nvalue = 45.871"] ;
76 -> 77 ;
78 [label="mse = 5.007\nsamples = 3\nvalue = 40.7"] ;
76 -> 78 ;
79 [label="X[11] <= 393.835\nmse = 3.063\nsamples = 2\nvalue = 36.95"] ;
75 -> 79 ;
80 [label="mse = 0.0\nsamples = 1\nvalue = 35.2"] ;
79 -> 80 ;
81 [label="mse = 0.0\nsamples = 1\nvalue = 38.7"] ;
79 -> 81 ;
82 [label="mse = 0.0\nsamples = 1\nvalue = 21.9"] ;
68 -> 82 ;
}